Language model created by QuickLM on Fri Apr 28 19:15:47 EDT 2023
Copyright (c) 1996-2010 Carnegie Mellon University and Alexander I. Rudnicky

The model is in standard ARPA format, designed by Doug Paul while he was at MITRE.

The code that was used to produce this language model is available in Open Source.
Please visit http://www.speech.cs.cmu.edu/tools/ for more information

The (fixed) discount mass is 0.5. The backoffs are computed using the ratio method.
This model based on a corpus of 5 sentences and 10 words

\data\
ngram 1=10
ngram 2=14
ngram 3=10

\1-grams:
-0.9031 </s> -0.3010
-0.9031 <s> -0.2430
-1.6021 FINDING -0.2430
-1.6021 FORM -0.2900
-1.6021 GENERATE -0.2788
-1.6021 LOGIN -0.2430
-1.6021 LOGOUT -0.2430
-1.3010 OPEN -0.2672
-1.3010 PATH -0.2304
-1.6021 STATUS -0.2430

\2-grams:
-1.0000 <s> GENERATE 0.0000
-1.0000 <s> LOGIN 0.0000
-1.0000 <s> LOGOUT 0.0000
-0.6990 <s> OPEN 0.0000
-0.3010 FINDING </s> -0.3010
-0.3010 FORM STATUS 0.0000
-0.3010 GENERATE PATH -0.1761
-0.3010 LOGIN </s> -0.3010
-0.3010 LOGOUT </s> -0.3010
-0.6021 OPEN FORM 0.0000
-0.6021 OPEN PATH -0.1761
-0.6021 PATH </s> -0.3010
-0.6021 PATH FINDING 0.0000
-0.3010 STATUS </s> -0.3010

\3-grams:
-0.3010 <s> GENERATE PATH
-0.3010 <s> LOGIN </s>
-0.3010 <s> LOGOUT </s>
-0.6021 <s> OPEN FORM
-0.6021 <s> OPEN PATH
-0.3010 FORM STATUS </s>
-0.3010 GENERATE PATH </s>
-0.3010 OPEN FORM STATUS
-0.3010 OPEN PATH FINDING
-0.3010 PATH FINDING </s>

\end\